2	30	1	2

-0.0113381426668	-0.0113381426668	-0.0113381426668	-0.0113381426668	-0.0113381426668	-0.0113381426668	-0.0113381426668	-0.0113381426668	-0.0113381426668	-0.0113381426668	-0.0113381426668	-0.0113381426668	-0.0113381426668	-0.0113381426668	-0.0113381426668	-0.0113381426668	-0.0113381426668	-0.0113381426668	-0.0113381426668	-0.0113381426668	-0.0113381426668	-0.0113381426668	-0.0113381426668	-0.0113381426668	-0.0113381426668	-0.0113381426668	-0.0113381426668	-0.0113381426668	-0.0113381426668	-0.0113381426668	
0.581225092458	0.581225092458	0.581225092458	0.581225092458	0.581225092458	0.581225092458	0.581225092458	0.581225092458	0.581225092458	0.581225092458	0.581225092458	0.581225092458	0.581225092458	0.581225092458	0.581225092458	0.581225092458	0.581225092458	0.581225092458	0.581225092458	0.581225092458	0.581225092458	0.581225092458	0.581225092458	0.581225092458	0.581225092458	0.581225092458	0.581225092458	0.581225092458	0.581225092458	0.581225092458	

-0.334508084968	
-0.334508084968	
-0.334508084968	
-0.334508084968	
-0.334508084968	
-0.334508084968	
-0.334508084968	
-0.334508084968	
-0.334508084968	
-0.334508084968	
-0.334508084968	
-0.334508084968	
-0.334508084968	
-0.334508084968	
-0.334508084968	
-0.334508084968	
-0.334508084968	
-0.334508084968	
-0.334508084968	
-0.334508084968	
-0.334508084968	
-0.334508084968	
-0.334508084968	
-0.334508084968	
-0.334508084968	
-0.334508084968	
-0.334508084968	
-0.334508084968	
-0.334508084968	
-0.334508084968	

-0.0865596972246	-0.801403273492	
